49.5831890521
-1.3620734573
0.565246661563
1.86914366144
-0.118255626988
-1.10618328589
-1.30126806519
7.90496540145
-20.3586229643
-20.3917287864
-1.06253660758
-0.606544889269
1.4504891347
9.07025726666
-2.83209523628
15.1435237146
-0.424114736795
-0.585929138297
-0.15672803767
-4.57833332968
-4.30978194306
-4.20459337562
17.059193284
2.72178868992
85.4252466224
-0.0959165305337
-1.57899854434
-0.820411460861
4.71163413868
6.04058460429
6.15000393544
-0.320012775606
0.868836449397
-0.46232675654
-0.809871160564
0.868127296043
-1.05242893428
-2.04033941584
-1.81845686644
0.676367343732
-0.395948257463
-0.531166528672
1.12893310976
0.848288575956
-0.546881303597
121.894959023
0.418026743583
-0.722101789209
-0.925954940253
0.719956699096
0.37255316428
0.235135864745
-0.409104964708
-1.93165937647
-0.156925260317
-7.32816478543
-8.21491820029
-7.38770851517
-1.1608074722
-1.79372523032
-1.55851141316
0.181763852096
-1.6179829028
-2.0659685883
0.28973702983
-0.314509963984
-0.73110560574
-9.98208642063
-8.62412657304
-2.00984732308
0.020219910034
-2.14617541116
-0.147396311941
-2.75596247188
-0.400279945129
-1.20258647891
0.248741325662
-10.537979189
3.94435447672
12.3940747104
-1.263429867
-4.02776631135
-0.994957436328
-0.225612961662
-1.22144185242
-0.454667158868
-1.56994611388
-1.05143972251
-0.0831878879932
43.2111189193
1.77337855466
1.0320422701
-1.53819893671
-0.798573185684
-2.22925991957
-0.815003167569
-1.27164671538
1.29063556848
-1.4774038264
-1.92953066322
0.869899322066
2.24524606945
0.0136727056389
9.71624768775
3.43021362396
7.39839715187
-0.815538254383
0.696211508043
-0.691991959182
0.436332380207
-0.0411168278817
-0.295177760624
-0.0362193825968
2.00333288436
425.570738266
-1.35912655704
1.32828130995
-0.984343445568
-0.49482120322
-2.63392933075
-0.316436589752
117.440996073
49.405688787
13.7933935957
-0.0439099344027
-0.380163889015
-0.645805624424
0.197899534967
-0.113981205415
76.7048549097
-0.818198331313
-0.23170098838
-1.29590670765
-0.784651046494
10.1363497637
37.2634877348
-1.94860753459
-1.27665322252
7.9547425303
3.65086111264
2.14482293
1.86581588558
0.347566779146
0.953559284935
-0.507366876474
-0.83986191405
-1.06588644754
0.849139377063
38.8131230452
-1.00953546749
299.671870462
-0.500949017519
-1.45518027248
-1.40152524922
3.59725157614
-1.50740191635
-6.08649438685
-1.51160033172
-2.23695402557
-1.91197186554
-0.70216351133
-0.956234023776
-0.566896838269
-1.22766238024
76.7987148858
-2.10780835886
-12.6940822783
3.43993726311
-18.0595909047
-0.274037607564
0.539497470043
-1.24208401856
-2.70202846193
-1.60517629061
-0.658754140328
-3.75681611571
-0.462123904015
-0.56216733653
0.0830289325895
-0.44735556125
-1.21542037776
-16.8523485245
3.78152942083
-15.147133421
-0.715270079057
-0.579539282154
-0.836028953109
-2.73668441181
-3.50798619166
-2.73792441539
-8.8945897412
-6.88360046221
-2.04357954898
-0.802219243101
1.45999509782
-0.478652916536
0.390071042061
-1.25991725152
0.522059557777
2.98754024602
4.26949086101
0.483773672858
-1.93389290093
-1.07080493794
-1.0645892538
1.5614633431
26.5131639652
60.1041574747
-0.0810673004903
-0.211507545719
0.764004512823
0.934290066786
1.1436335931
25.3449580944
0.629316183614
-1.84943504053
-0.455340475717
0.666965795445
1.66496345537
-0.718421250667
-0.587666824661
-1.75825004838
-1.80681491496
3.04018855132
5.1029492324
5.00106256657
-0.8597346472
-0.568711806462
-0.354752248921
