-12.1614838471
-0.19225922631
9.01029970734
20.7078518606
-0.123284454674
1.4914737089
-0.207811778348
-5.44129773398
6.55078745041
-7.10222937353
-1.23927499024
-0.11813993313
1.26266408991
8.66656301323
-3.3801403467
11.4312827603
0.226707095717
-0.666327562977
1.5274236195
-0.33880712484
0.617502818208
2.4199764712
3.48581188381
21.0181987455
203.944691747
0.0771244528843
0.0109759995116
-0.413292208135
2.42914439033
3.07368661601
4.05538800187
-1.76896886273
-0.268026639931
-0.806251679741
-1.06692161563
0.274839299766
-0.900871862485
-0.555836518494
0.0858068619854
1.65457567946
-1.2852432977
-2.0491096249
-0.769127776387
-2.70079395203
-1.92183313728
80.7961636112
-0.306499116182
-0.0350047470999
-0.204051457865
37.2782523821
-4.19376399842
-2.74146965094
-1.6124707572
-1.2439721615
-2.72405860193
-2.3128079186
-2.17213141964
2.79797322167
-0.18788176304
-1.93308705402
-0.607688303442
-1.04498865148
0.375068047359
4.9715322063
-1.03820306946
0.107003044375
-2.37418156715
-0.853097789756
-0.0536438727641
3.3219300907
0.0368812738793
-1.30735315216
-1.28870756273
-0.332854605785
-1.11241831074
-0.740704413569
0.879549174753
2.82215399895
10.3217078986
1.64339160656
-0.650309578974
-1.31964204241
-1.17535419004
-0.992672709393
-0.480241599463
-0.160214809868
-0.93796152761
-1.46542435778
-0.423289154871
7.28783117437
-1.85596213816
-0.578439732662
-2.49409173768
1.0527136988
-1.69042871345
-1.41721329886
0.41913855946
-0.0237364663214
-0.863742214216
-1.3705235489
0.222625551254
1.1790903933
-2.06056986665
3.74397019591
1.82215345022
2.79476298799
-1.23345795708
-1.30952348688
-1.41716656767
0.616151208095
-0.278992894443
0.314624804454
-3.38751504927
-2.08079388679
496.114072646
-0.718513785497
-0.955226481211
-0.312201662649
0.304885385196
-0.919924667164
-0.351123399825
81.0792736284
68.5280397268
15.756993813
-0.55851009057
-0.603998114115
-0.897762538805
1.58889406736
-2.37498707976
56.9894813396
-0.509911082092
-0.109995091593
0.146064724773
-1.51287786597
5.19972006144
32.7436501257
-1.11533279464
-1.28796185208
2.77715943004
1.69518989017
3.8273392821
1.37681603326
-0.144847560879
-0.305330535125
-1.36561942792
-1.33340216527
-0.810569962151
-0.500879941235
14.7621872949
2.25544382449
156.948831612
-2.9828269337
-1.48450142224
-0.499638575383
-0.512039224007
-2.50176930917
-3.21018750429
-0.915112457442
-1.35136564112
-0.192329163173
-2.12614738721
-0.859112352122
0.787466807049
-0.573660771669
7.62924376833
-0.310725404735
73.6160233751
69.0074632315
-5.32088121081
-1.85580612485
-1.16892282984
0.0402466438778
-1.15636723184
0.425275040174
-0.898193443135
-7.3608582672
-8.32941975378
-5.5709412307
0.106713064756
-0.195154123105
-0.234790945112
-1.15290709166
21.3171232901
1.23912063803
-0.365331634658
0.823063446824
-0.77229382687
-0.736489777043
0.0298827214278
-0.285895086927
-2.34428466401
-0.664900386995
-1.09994864299
-1.56137211345
1.79222169221
-0.437979086007
-1.6562174764
-1.09486759883
-0.16187369706
2.15572286872
2.15861777393
6.04132857725
-2.18177090229
-0.811133830207
-0.79642948277
19.6719372982
4.11812926913
47.857488173
-1.46889382513
-1.17652913349
-0.0815771487966
9.85439613457
4.13477342773
51.1119144909
-0.559111594013
-2.17787854625
-1.59704189547
3.28905850387
40.1378559866
4.69659811602
-2.02654288133
-1.76226973859
-1.65465546743
-1.05253145475
-1.93988503511
-1.70912634472
8.76377776852
9.41130273931
9.0856361643
