-18.0525745746
3.52752967891
0.352350335438
0.746738346917
0.0230898791022
-0.417650653337
-0.305168990287
-1.52146452733
4.06148186607
-5.57832952927
-1.11835837885
-0.939031787735
0.8150593539
-0.0242585451885
-1.88171930815
3.16140055168
1.10279066559
-0.080519631263
1.13389537833
2.55831522956
2.20964642858
4.7559028369
0.675820228101
0.486045392909
0.984255833707
-0.96279892065
-0.381394545969
0.242515257015
6.37932021523
12.3544430746
6.2453748272
-1.64360653353
-0.0592168167475
-0.27565032183
-0.717437775932
-0.666096536546
-1.8823743201
-0.700476611659
-0.880942720891
-0.934464467113
-1.48726756506
0.455784236467
-0.790263626872
10.8531187119
165.507983753
6.72460435316
1.24382744156
-0.0488008434855
0.0731532482482
9.10232583101
-2.85595194252
-2.86162042883
-1.31878604777
-0.571693459384
-3.67897609124
-3.52423865572
-4.02030698813
-2.29772767034
-1.24037577186
-1.74818699169
-1.1516661484
-0.667383878601
-0.249135214372
55.524303525
-0.177599105515
-0.379599276271
0.0302891572467
-2.38955056456
-1.76929049708
3.39200610732
1.15179109769
-0.602219888124
-0.411369263151
-0.682612608606
-0.552701468622
-0.284178747812
0.154880729796
1.67767289119
2.0331434448
94.279505506
-1.52614312962
-4.45949882109
0.336618747944
0.266474382411
-0.0575375737113
-0.0665647174101
-1.73697973018
-0.368491972184
-1.17733526084
0.722275612902
-0.90725595149
-0.609251574131
-1.13779102592
-0.549183576076
-0.903703302298
-0.851667099177
-0.933271999479
0.0864256956758
-0.745913790349
-0.873100207698
7.76367292251
58.0429081816
-0.603167942127
0.955821921464
0.800468534284
2.37387700327
-0.441563861795
-1.44233050639
-2.73700998127
2.04254425481
3.09330216683
1.53257763191
-0.275356569833
11.9324269536
2.86617056053
-0.286285746388
-0.566851567458
0.962412086744
-0.331189784048
-0.234389232096
0.395121288384
43.7744505535
74.3003120712
19.5409263773
6.91888750161
2.1629185398
3.21951230042
0.41916732149
0.894445262503
25.8331778895
-0.988674606833
4.53978140072
-2.16858893415
-1.57007096666
148.146201765
13.193009658
-0.342583106955
-0.0803379688503
22.6936853705
1.81538224557
3.02246538373
1.31870799827
-0.19103535855
1.28148956914
-1.71657805515
-0.557316824571
-0.57190702342
0.501357003575
7.68745967513
2.91257357593
172.742979002
0.356987157659
-0.151258306288
-0.21627690203
1.62469136243
-2.20292652541
-3.00530694234
-0.965720991529
-1.01530056669
0.26817808775
-0.951402980281
-0.465651271555
0.543389719113
0.261836591662
2.88664448181
0.152452700722
84.2739154605
92.7331292139
-3.58200405705
-0.0240641336269
0.294846917703
0.674792383233
-0.0417394793334
-0.577746119943
0.752327450121
-1.06538361649
-0.595569349076
-1.04340839998
0.970716963609
-0.60551997443
-0.75309992615
-1.76928728525
15.091223691
-2.1398679386
-0.797942775636
-1.20235727335
-1.12541924882
3.18732211522
-1.76223826463
-0.542954972602
0.348083970227
-4.45650330367
-0.803579468503
-1.49993033777
-0.156903545727
-1.64308422288
-1.58355901605
-1.7099894883
-0.106769705722
9.22525689906
8.16197485212
-0.683945806956
-1.35689506421
-0.344268518588
-0.57460279499
0.316464586909
2.37887920485
5.19269326346
-0.838578057014
-0.332445635056
-1.60723156341
-0.422685674403
-0.108856197705
-0.200479891457
5.30887986251
-2.18531919692
1.6878084256
-0.222346229554
-1.3789495184
0.66706493976
-1.00450291614
-1.06622837742
-0.682452456445
6.27213089413
6.62427124312
5.16485416037
7.51336532364
8.49318614211
10.7519792769
