-25.4064270019
0.663210999317
1.97211159729
0.276219746074
-1.10573420286
0.696949892116
-1.38223334718
-3.22731326889
95.7416165643
-2.1816030416
-1.58828346355
-0.678144829489
1.17644330972
4.62347100313
0.715879496935
22.0478741911
-0.961535244522
-1.60836683107
-1.13560008871
-2.18468622172
0.333224530477
6.22613602818
0.27315762205
0.357315594686
6.30409308226
-0.996585518174
-0.873505941235
-1.03846893145
5.41681900075
15.1849065315
14.2674347648
-0.978291825196
-0.547803808643
-1.15377134526
-1.95461189263
1.38483253224
-2.44690232417
-1.03214745778
-0.102987164327
0.467185450624
-0.569311537231
-0.581943078338
-0.453884451543
6.91124980886
1.6588681412
189.814245689
0.817825656181
2.31658410462
-0.121128935941
2.38164811711
-1.00142463394
-0.696123413917
-2.3573470748
-2.09806216134
-3.35545053277
-1.85484166969
-2.08881591094
-0.165206725928
-1.38843419325
-3.35004250458
-2.54917841941
-2.90546927478
-1.26145029271
4.70649286683
-1.24867373406
-0.509432895832
-1.31001808123
-4.65821546523
-3.04903042064
-3.58151288404
0.16818254464
-0.334565526844
-1.22128848392
-2.12102991993
-2.62525205686
-1.77194197275
-0.313765376552
5.89021992562
0.580059202192
17.793779566
-0.0988722182942
-3.34670752226
-1.54265488359
-0.235135091381
7.08050712484
-1.59020600763
-1.12631276148
-1.7407912274
-0.724263826952
5.71627865925
-0.352360312425
-1.89154075687
-2.15759460429
-1.93757739452
-1.19023076167
-1.13766694997
-0.627050217063
-0.366826362513
-0.946962129397
-1.9313746966
8.2485756579
12.5296855633
-1.04523912171
1.43181822273
2.5426619581
1.77386312653
-3.34218995992
-1.48927895411
6.0414543425
0.513726781842
0.998275980193
-0.164035351637
5.76294735325
10.8267572914
7.63906931272
-0.707054814635
-1.53158131546
-1.48478746836
-1.53521362375
-0.630538221852
-1.72791472517
27.1958257751
81.31666149
6.50360498383
-0.0165592609357
1.74212641259
-1.21154438638
-0.935946023821
-1.24405026158
75.4911692439
-1.65942357966
-0.556766397136
0.600281705489
-3.46137752357
-1.90156697493
19.4345215968
-1.08694640581
-0.84527782015
3.34642540656
1.5229205114
2.61959278989
1.88193152019
-0.794812133815
-0.687659352183
-1.22309567367
-2.27332356424
-1.17790040749
0.692600338033
0.179775614187
5.07947623939
59.9265034194
-0.0157650227199
-0.986005739055
-0.665544130348
-0.37561155501
-1.53367724787
-2.1091057194
-1.33062172945
-1.64204159993
-1.2664475596
-2.13155532052
-1.67834833963
-1.6728353991
-1.80162968344
48.552013098
-0.91737573834
161.35274444
160.552255697
-8.19414733747
-0.703900205524
-1.18682627438
-0.817370741011
-2.13779221903
1.12983239622
-1.30119054009
1.06497239947
-0.875174551528
-2.69659160927
-1.29534628242
0.0351798481243
-0.743097240459
-5.07131445251
36.2663761371
-3.35304615169
-1.20792347383
-2.13791895547
-3.07472552596
0.200254879343
-0.226139625422
0.136665971084
-1.29214373923
-2.21525443905
-1.58364679838
-1.33056910266
132.286620413
54.6374439984
-1.98916117522
-1.43868129966
0.0968245588521
-1.10114327344
2.16439136174
0.447141099885
3.18011258762
-1.62767420461
-1.89628901324
7.80253238373
-2.32892774757
-0.171959164926
-0.403865427492
0.0136651356078
2.93486787012
-1.30466694539
-0.638865889568
-1.12013758031
12.0090374556
-0.10943255508
-0.92473168789
-1.43154433144
0.320425764668
-0.96258895575
-1.50061603473
-1.17590432727
-1.47707840261
-1.25727776075
-1.52023105183
1.62676604389
-0.0508314398792
-0.784304291498
0.469682946316
