-16.7813091636
-2.27737750531
0.318260381603
0.504803353813
-0.761758022117
-2.60318198631
-0.667538751029
-7.42333889884
14.157632226
-6.50736262108
-0.621760336271
-3.74130319223
-2.92722308035
8.15687956408
-1.34279768152
34.5861464663
-1.57392546733
-2.01176544067
-0.335377464785
-0.372593592226
0.593456163758
2.63017247245
0.542964865719
1.2128034982
78.9167400732
-0.00601669225526
-0.616566760533
-1.23025794186
4.40200869367
4.55009377453
4.44212720674
-1.11126511908
0.245397300767
-0.287079798724
-1.00395956592
-0.242315437504
-0.866584912101
0.103962055875
0.713682933069
-0.210355246276
-3.65206260613
-2.9243900117
-3.22748172412
-7.42540053163
-7.99375911089
18.2534167781
-1.37864676351
-1.00527479316
-0.321301830508
19.31527057
-1.73549481518
-0.980356239385
-0.887505871036
-2.4096423646
-0.393053034155
1.35998129034
1.0489125555
4.95425541272
-0.351351446929
-0.335187838978
-0.248341500283
-0.208042434482
1.72791870284
-1.10397545946
-2.96540914866
0.42698959335
-0.731469889616
-1.12070235807
1.35666328189
40.0482868585
-0.115399521497
-1.44341172481
-2.47849878014
-1.37489552616
-1.44872546304
-1.43602042563
5.15532331202
1.87839500663
8.65607201702
4.97479334066
1.96149253489
1.84640613973
-0.726870990894
-0.578774562858
-1.21865195863
-1.22670316783
-0.777891332791
-0.710500051194
-10.0890264076
24.3352864539
-11.0088440796
-1.22685377967
-2.2835795328
-1.02560821805
-1.40701019522
-1.00229181513
-0.471252520017
0.0244428872326
0.110463734254
-1.55399982232
0.384417525942
12.0728826564
-0.288251320217
1.03183981312
1.11263658514
1.88839293817
-1.19936867789
-1.38606378756
37.4860361049
-1.28231492266
-1.45128209612
-2.13267522947
-0.770180717524
-0.386437890446
601.062609782
-0.388437770663
-0.485768170237
0.389007294571
-1.20998106385
-2.2915417352
-0.475513124904
233.660670526
56.5737670276
2.16001003935
-0.747477100221
0.269179062991
0.158275533523
-2.60749145359
1.2365443602
6.00384268328
-0.428979631093
0.873157285397
1.12887224625
-0.390081820489
-1.78006898646
1.80117446679
-2.9607475025
-0.796140141571
-0.431751334678
6.2012514154
4.98465615114
4.21293660907
-0.747596413654
-0.652792003199
-1.15425098549
-1.60237875917
-0.854944959322
-2.80014222226
-0.413807819568
12.2671120253
0.659406788933
0.409905622379
0.492262191118
-0.22115363032
0.476182589996
1.29123943739
1.37293715458
-1.56791271607
-1.27675151904
-1.7240115182
-1.37989697827
-0.76288760131
-0.464365151725
-1.49824524265
1.13372571779
-0.569727994827
147.809988044
121.531732081
-1.85078389628
-2.43066388601
-2.02409595321
-1.26336869081
-3.13261837655
0.781751508575
-1.13598242331
-0.592676335718
-1.42238174264
-2.19861055542
0.0339984936417
-0.738324247663
-0.867176459308
-1.38813091635
19.81381335
-2.86450244804
-0.527939546485
-1.60105731473
-1.1192034899
1.84952129846
0.438330737888
-0.255418484621
-2.64069170593
-1.11469702167
-3.85221076521
-1.68874424925
0.0576571730846
1.11117022104
-2.0480128223
-1.94544090073
-0.875765960643
15.062959095
18.3436906533
-0.799899098434
-1.89659607574
-0.50305641573
0.346510320036
0.683992869687
-0.44505651813
7.28009512118
1.84413470161
-0.713184793686
-0.197185921693
573.495955797
35.0977674856
25.9254583838
-0.42279545408
-1.44233436556
-0.885105488277
-0.160689699017
1.84023688211
-0.0272839780338
-1.71117770791
-2.00156671165
-2.25404987196
-0.242536518597
1.95780423604
-0.509564994771
-0.794015088497
0.760842760486
-0.459952415591
