-0.804828462019
-0.860915580657
-2.23680494597
-2.44927449483
-1.14249698448
-1.20717172805
1.03536030054
-1.5995879153
14.6239155022
-0.241086906592
4.13436516498
-0.419490826639
1.29376864744
51.2108558452
1.07149662748
-1.74048336916
-2.22049965121
-1.009185031
-1.0316875655
-2.21598576489
-2.06854963045
2.18849667298
-17.4482875877
-16.8441414992
40.4264034507
-2.39119645329
-1.59659329813
-4.35065743429
3.57311917474
6.91586214234
4.21972067161
-0.88416956298
-1.29013611858
-0.52528826974
-1.55982307801
-0.0606730312724
-0.987344271535
-3.39521053384
-1.62490893917
-5.89498105481
-0.300723877163
-1.40282117836
-0.91496838899
5.59762979603
1.08531271933
306.113623083
-1.22907487034
-1.87509853549
-0.899997847736
0.359635860357
1.00670012657
-0.97004458982
-1.25296620261
-0.381984394742
-2.0201835605
-6.75202894184
-6.35932070372
4.84976782213
-0.644564855178
-1.23896507076
-0.336937108741
-1.24206151083
-0.577658123117
1.21771107314
-1.71969310341
-0.888353059431
-1.99571526756
-2.11911341491
-3.02519830782
241.239072853
-0.0443298308536
-2.09537877648
-1.30883505948
-1.97066546952
-2.1589240895
-2.76515353595
-0.0536507560053
1.74043025763
6.1638950425
-0.422981480277
1.0404892888
-0.445598332353
-3.74590725999
-0.871678075402
-0.541704718362
-0.913681677291
-2.37135770424
-1.47548008097
-0.63317619848
-0.885094486434
0.32758748339
-2.62832268172
-1.17147842472
-1.34642836183
-3.82841852461
-1.18411728061
-1.13165377823
0.132009450995
-1.22466190829
-1.01324135139
0.150592987478
5.69642627488
-1.0791162234
8.03796247435
2.83922416993
8.04438753461
-1.53491565046
0.139634042881
0.426529963831
0.460184998786
0.827895604359
6.96713897075
2.03371940341
7.25283230741
5.78705459143
-1.20962857021
-1.01174684959
0.176671100257
-1.41408601632
-0.804621687199
10.3713003208
290.472728483
47.0044278437
9.61501633215
4.67920951571
-0.159208721502
-0.703227329225
13.8343187002
-5.21560488976
12.2346388336
2.51629080221
-2.75382178907
-0.551392928338
-3.40758549167
3.24518277078
28.1150113911
-2.42006860198
-1.3876637152
4.04802591866
4.05908388198
3.92822847269
2.39564191863
-2.84507479162
-1.06660027542
-1.5476340849
-3.16654042423
0.0929050399319
0.651331210221
-1.36303522187
100.596252339
195.156586755
-0.0791718817063
0.85535125033
0.0272356847135
0.357679728497
-0.0593688787515
-0.424268984198
-2.10613717751
-0.81977270946
-1.48416914452
1.62768074532
0.0744229895154
1.29358524595
-1.48988262413
1.00946733137
-0.499734563978
-0.109027559194
9.24901356168
-2.32893514354
-1.65539881104
-1.17800711835
1.62230332062
6.19319452103
1.56954463851
0.0636069452448
-0.372356934057
-1.34245272328
-1.8657827276
-1.42655473585
-0.565480190089
-3.99123307943
-2.29704272396
25.5568134805
3.73286166992
-1.58414274001
-0.831772538428
-2.1717745238
2.81573442024
-0.672446032484
0.130830359026
-1.48497129158
-2.08690856455
-1.31298146214
-0.915371779315
4.22868843535
-1.24486077628
-2.09147180474
-2.05095671374
0.532546841197
1.01936204873
0.370811888034
0.19330163442
-2.22744355181
-2.62480536072
-1.04082266805
-1.99734274182
-4.12468906165
-0.493288531917
-4.0778973947
1.81216829933
-1.92466873804
-13.2606017226
-12.534527979
-13.095037903
619.923751379
-1.36970594646
0.168357167712
-2.4558155805
-1.03184161996
-0.697992069351
-0.852698270338
-0.722899712735
-1.00551818079
0.884097539401
3.52004870971
3.36403393752
-1.23908675685
-0.532454185904
-0.491340695494
