-19.6468246553
-2.58977933304
-2.0085480002
-0.179923776801
-0.962130718629
-1.47377587911
-3.00576752553
-1.20828475466
0.110730300721
-3.16469713008
-0.863306372893
-2.75176313881
-2.50634649624
-2.0772610747
-3.1391588469
-2.68306077628
-0.248963077174
-1.19409636893
-1.43919246636
-2.29517714725
-1.68585528225
-2.78140458777
0.759797251387
-1.63814182948
88.1204349252
-1.39050169906
-1.19445980101
-0.99380803159
2.33007567722
-0.978522531067
5.22903334663
-0.612982098807
0.25786577906
-0.512321683426
-1.49333188822
-0.180744608425
-1.21162375016
-0.42350231697
3.25001889358
6.16513124929
0.0411036561177
4.85714624447
0.864364300076
5.66941565259
-6.09959973252
419.468067128
-0.256599658409
-0.703277287752
0.132563987784
40.5648114684
-3.32814566977
-0.74278964017
-1.65226986606
-1.34231267433
-1.82419202794
-2.77934616296
-2.07665193385
-3.59563696343
-2.78998256077
-1.50689225878
-0.82678961866
-0.0514775995346
0.663988285869
16.7310195555
-0.558466583961
1.01714530648
0.178042059882
-2.23547171894
-0.388175787068
32.7909717595
0.433443469795
-0.756474018195
-1.75717335934
-0.936647308861
-0.732970011719
-0.710369983717
1.7182832517
2.69722524952
1.78000435105
1.31693775657
1.4360419798
0.463103899254
-1.32401042528
-0.649496108584
-0.409686418219
-0.289467101377
-1.2752173311
-1.21478501941
-0.486005910969
5.61945520918
0.258525731476
-1.6903775468
-1.55493160591
0.729149441615
-2.07758049882
-1.82132831265
-0.0640597292055
-1.14783421451
-0.332691972027
-1.41239317533
0.063792499616
0.195958745802
-0.10692101009
1.90348654235
2.44647613644
3.20382866681
-1.03894261649
-2.08679101288
-2.10373730941
0.381216474479
1.13287185092
-0.3732640931
0.715530711974
16.0985573946
12.9954722471
-1.36857615878
-0.519530851444
-0.413469764582
46.6926111321
-1.40113462109
1.27635295707
18.0389352386
36.461926377
15.2921836717
-3.19651027611
-3.21388436263
-1.71321854207
-1.386858984
0.846125816379
43.8349975365
-1.39651211126
-0.317625004782
-1.92764740955
-2.71131456406
-2.90102442807
36.2505239406
-2.03962669861
-1.35526978825
6.17448649351
1.64529429635
3.10030624085
2.05692938091
-0.752847696747
-0.703419857455
0.177656887657
-3.16108280179
0.263159592971
-1.05773569094
2.24315380782
4.420432459
398.842474137
-0.486194068056
0.838170736394
1.30233796715
-0.790940961946
-0.422908069073
0.197041763836
-1.51460395838
-1.58866583626
-1.11229950726
-0.471933055299
-1.47110891102
0.92397904936
-1.65145371905
1.55851010753
-1.50345516261
0.33639439253
7.22749235855
-2.60880533923
1.58058365245
-1.70680044156
-1.55611799115
-2.50533407074
0.109730066602
-1.57974495341
0.149799139279
-0.721819634405
-1.5835605436
-0.16787140848
-0.522018342692
-1.42892680185
-0.824456739961
-0.699835102841
0.507283362824
-0.527754965141
-1.59473072043
-1.10911958931
-0.210671430967
-0.826421665724
-0.766040290723
-0.422653457898
-1.50047542539
-1.64593559118
-2.49823950466
232.567813132
167.974391064
-0.59136436544
-0.122021488948
-1.3756815271
2.83333436214
-3.49365609795
0.464697263845
2.25563792766
2.46355043493
-1.47120065459
5.80411158
166.428600728
169.220898188
1.46061333558
-0.0074794564908
-2.73070265576
-0.60779562266
-0.63195933822
24.9070890621
274.134344157
-6.5990229971
-3.28336840399
-2.90680017883
0.190424192816
-1.96021932387
-1.11725409429
-1.47973230586
-1.14079338864
8.08678283356
10.0942046804
2.92324054512
-1.36205487664
-0.916944694354
-0.66107094791
