-14.1738556489
-1.3365818123
4.44896012803
3.40635308915
0.346924073598
-0.664656220009
-1.69705292029
-0.414495271333
-0.738480712411
-2.13724757091
-1.22767238427
-0.26452504766
-1.03580205612
0.314851559769
-0.305309813291
4.64966177047
-0.123754870532
-0.861048237321
-0.313015565196
-0.940703626771
2.06605019957
27.9554086411
-0.698139148362
-0.810130625709
39.6562907461
-1.14230512004
-0.724565878792
-0.224107678919
-1.46104685629
1.03966509319
0.0887348729597
-0.765811477763
-1.17225185496
-1.36384201548
-0.350959739344
-0.039465486846
-0.519310717803
-1.10217742013
0.391103166368
0.615114117815
-0.313193483902
0.0834029196228
100.40191499
-0.168698358363
-1.36174389961
133.16582379
-1.80507594594
-0.919775953966
-1.25711273623
4.86452340244
-1.38333271545
-1.17337219473
-2.27762539325
-0.767755860387
-3.00497376986
-1.4243801961
-1.44380860131
-0.500084243412
-1.53456176078
-2.16950450558
-1.00368516274
-1.58427947552
-0.899538478811
9.04863342374
-0.780504339048
-0.680655190365
-0.885826492601
-1.37241344429
0.616697698196
28.623732287
1.37635849799
-0.985555223191
-1.57897075587
-0.588339083306
-0.899274764484
-0.44552796451
1.12376909983
2.0019904942
0.360021706685
2.15387406517
2.46544423429
0.174788494158
-1.21928744815
-0.622620977814
-0.43764445029
-0.429917133527
-0.515084392364
-0.633856360299
0.56656483596
-1.7038584142
0.172638198606
-1.11517016936
-2.24826869247
15.6933170104
-1.49432619776
-0.989816622468
-0.597323907771
-0.197595010562
-0.284201287821
-1.27632534482
8.31998805775
4.48178532666
-0.795601791941
3.17957601318
3.96614617039
4.69028099664
-1.43363627559
-0.959464250189
-0.492732599089
-0.498041685433
-0.940853204652
-1.61907462713
-0.793099091841
-0.896780926895
0.936895469002
-0.170920155315
-0.335200987627
0.177056385578
-0.0159577340575
-0.859911842035
-0.387793423286
71.4899285323
33.804306638
7.3607273414
94.9451430778
-6.39293107897
-3.33716748976
10.8839121989
0.466961208344
31.3461472895
-0.960875237968
1.09531490762
21.1979439092
-1.19790194336
0.939950058708
6.2913830659
-1.87850776682
-0.728250927575
2.90618870795
0.234330616875
0.926895458798
1.72127478944
-1.17952708574
-1.13073153252
-0.805337426061
-2.30237617249
13.1430072242
-0.359966367003
1.24111032765
24.7950278648
122.209160447
0.0744508581669
-0.210262402607
-0.1838637587
0.547433201722
-0.0390056485477
-0.57801284661
-0.961318879514
-1.37268694506
-0.775628541382
-1.63651478526
-0.765307187932
-0.359084755163
-1.77665373681
29.5469510958
-2.18892279908
-1.99254647915
-1.35159656316
-1.65163950979
-1.49666139517
-0.564577113958
-0.270651571668
-1.54380072064
0.0738049982734
-1.49615330005
0.820611887971
-1.13361806805
-0.735962025133
0.632274517658
-1.42406450674
-0.520394544671
-0.257886543081
1.7269358734
1.70688417594
-0.96445860664
0.0965703266712
-1.03432920111
2.38326570505
-1.44966289362
-1.49075363995
-3.42419108944
-2.88182248757
-2.31770775421
-1.02067958745
2.16265102689
0.701400851097
-0.642554843248
-0.849795212546
-2.00116234854
12.7115873787
18.2068376878
-0.822613620577
4.76088790129
-4.2018508339
-3.24584542271
0.589940287831
3.33303631554
2.1521790993
-0.398532108128
-0.431912634432
-0.406631696997
-1.54744913315
-1.5825482308
-0.705353427371
7.0453985414
-2.22293875402
-0.701774540503
-1.4921059658
-0.468871699719
-1.10456614135
-1.8418413159
-1.43355509399
-1.56632893894
5.82789543414
5.98092461749
6.21392722285
1.1473163597
-0.217138723785
0.355876992291
