23.8974095119
1.65930979432
-2.23978744308
2.33201215832
-0.538993769891
-1.41573531644
-0.952308366705
-1.49863316403
8.35732683631
4.96544071598
-2.18162532776
-2.01546461468
-0.768908393005
4.56584951544
-2.79435940384
2.66297373554
-0.797350903635
-1.52125828023
-2.1489326623
-0.0800893688125
-2.02618307897
2.74365190088
-0.039030544119
-2.06043910233
39.9794189422
-1.39638822382
-1.85684249873
-0.981879954757
3.28935883908
6.29273625722
6.13175511395
-2.7813999725
-1.43644253269
-0.51031987177
-1.60329509158
-1.01938479478
-2.19544325291
-1.26590414071
2.66710327862
20.3981469941
-1.08972966062
-1.08825227809
-1.03894887749
11.7757816432
13.5078094283
67.1090138101
-2.71780209525
-0.376809339994
1.71937189525
6.41038697672
-0.226658247924
-1.11151295079
-2.32297403167
-1.31460599267
-3.02441462407
0.177738313137
1.2816880746
0.49187711853
-0.243624826114
-3.20070081824
-1.86238184047
1.07122059925
-1.10465304592
7.80891475738
-2.07520371046
0.320418992632
-0.482951345384
-0.769102214539
-1.61680869469
102.975028678
0.680043916897
-1.70304280704
-1.89077282263
-2.20940402092
-0.749578784596
-1.85111823242
3.15573182137
0.146025775054
1.22802781867
104.754461848
-6.84552520927
-9.40694841399
-1.16111462927
-1.1219300509
-0.691392688961
-3.46917719888
-1.70291700486
-1.55170204829
-2.45957430312
9.14540918291
-2.10281007674
-0.646742314955
-2.23900954255
-0.767002332333
-1.6419219071
-1.64639793362
-0.853705228056
-1.53853113686
-1.17947975109
-0.310023882417
0.982938658467
49.9503583471
-0.331101534168
-1.61820976753
-0.0523354453891
0.762931374677
-0.445920444179
-1.05908294775
-1.04363948733
-1.03707080633
-0.853192304147
-0.680797439374
0.135574461455
25.1234960505
890.403538287
-0.889236229881
-0.878994481623
-0.749432972701
-0.457903678829
-1.58265922014
-0.665624830493
55.9036224611
78.0217453626
7.78213140946
-1.13685327216
-0.601428019746
-0.986495182681
16.0107972595
0.0290102917625
83.3792601394
-2.21034203003
-1.45815834405
112.150567074
-2.57455688607
7.43336868016
7.69409380533
-0.610986445623
-1.71162891569
0.775630398278
4.32473894405
3.07107103712
2.68436409449
-1.44944676347
-1.77763907664
-2.86346216026
-0.133258775499
-1.18162277151
-2.21435941613
-4.24711895254
57.446939481
261.06414298
-1.06412641831
-1.33163726529
-1.6079762454
-1.07589086273
-0.466263518064
-0.139131549884
-1.53470573222
-2.30428838126
-1.5673868655
-0.519620225395
-2.34558625173
-1.82860052187
0.609790541839
1.77694846368
-0.612086600809
-0.190192512536
36.7981223111
-0.722439723691
-1.71741499975
-0.869097675795
-1.08491736957
-31.5664673165
-29.121342836
-30.112266908
-0.968526237536
-1.96010099688
-1.3897996903
0.350371028944
-0.543462895854
-3.14441984794
-1.42368934021
5.7766534961
-0.0117269634034
-1.99261014638
0.57114653959
-0.676638060855
-0.604817942999
-1.53264664283
-1.23445413311
-2.09225221475
-1.37901282199
-2.80238377032
-1.47288412489
-2.20484665271
1.95868410492
0.37710998327
0.508122084777
-0.371592088789
41.7515704626
43.2401330521
14.3872308294
-1.83519468027
-2.55456283867
-1.93966511081
-4.7625718873
4.37727291771
3.69830272116
-0.928119359105
0.160882522809
-1.90204331831
-0.799614544453
43.7488133411
-1.02609859734
-1.25059149822
-1.6109130887
-2.05624176591
-1.42455191117
-0.762636140425
-0.985566765117
-1.88604186612
-1.84304527134
-2.74536072266
6.69135116796
5.13795940523
12.559951974
-1.01709476911
3.76794517398
-0.125471233984
